<?xml version="1.0" encoding="UTF-8" standalone="yes"?>
<PMML xmlns="http://www.dmg.org/PMML-4_4" xmlns:data="http://jpmml.org/jpmml-model/InlineTable" version="4.4">
	<Header>
		<Application name="SkLearn2PMML package" version="0.92.0"/>
		<Timestamp>2023-04-11T22:35:51Z</Timestamp>
	</Header>
	<MiningBuildTask>
		<Extension name="repr">PMMLPipeline(steps=[('gradient', GradientBoostingClassifier())])</Extension>
	</MiningBuildTask>
	<DataDictionary>
		<DataField name="Diabetes" optype="categorical" dataType="double">
			<Value value="0.0"/>
			<Value value="1.0"/>
		</DataField>
		<DataField name="Age" optype="continuous" dataType="float"/>
		<DataField name="Sex" optype="continuous" dataType="float"/>
		<DataField name="HighChol" optype="continuous" dataType="float"/>
		<DataField name="CholCheck" optype="continuous" dataType="float"/>
		<DataField name="BMI" optype="continuous" dataType="float"/>
		<DataField name="Smoker" optype="continuous" dataType="float"/>
		<DataField name="HeartDiseaseorAttack" optype="continuous" dataType="float"/>
		<DataField name="PhysActivity" optype="continuous" dataType="float"/>
		<DataField name="Fruits" optype="continuous" dataType="float"/>
		<DataField name="Veggies" optype="continuous" dataType="float"/>
		<DataField name="HvyAlcoholConsump" optype="continuous" dataType="float"/>
		<DataField name="GenHlth" optype="continuous" dataType="float"/>
		<DataField name="MentHlth" optype="continuous" dataType="float"/>
		<DataField name="PhysHlth" optype="continuous" dataType="float"/>
		<DataField name="DiffWalk" optype="continuous" dataType="float"/>
		<DataField name="Stroke" optype="continuous" dataType="float"/>
		<DataField name="HighBP" optype="continuous" dataType="float"/>
	</DataDictionary>
	<MiningModel functionName="classification" algorithmName="sklearn.ensemble._gb.GradientBoostingClassifier">
		<MiningSchema>
			<MiningField name="Diabetes" usageType="target"/>
			<MiningField name="Age"/>
			<MiningField name="Sex"/>
			<MiningField name="HighChol"/>
			<MiningField name="CholCheck"/>
			<MiningField name="BMI"/>
			<MiningField name="Smoker"/>
			<MiningField name="HeartDiseaseorAttack"/>
			<MiningField name="PhysActivity"/>
			<MiningField name="Fruits"/>
			<MiningField name="Veggies"/>
			<MiningField name="HvyAlcoholConsump"/>
			<MiningField name="GenHlth"/>
			<MiningField name="MentHlth"/>
			<MiningField name="PhysHlth"/>
			<MiningField name="DiffWalk"/>
			<MiningField name="Stroke"/>
			<MiningField name="HighBP"/>
		</MiningSchema>
		<Segmentation multipleModelMethod="modelChain" missingPredictionTreatment="returnMissing">
			<Segment id="1">
				<True/>
				<MiningModel functionName="regression">
					<MiningSchema>
						<MiningField name="HighBP"/>
						<MiningField name="GenHlth"/>
						<MiningField name="Age"/>
						<MiningField name="BMI"/>
						<MiningField name="HighChol"/>
						<MiningField name="HvyAlcoholConsump"/>
						<MiningField name="DiffWalk"/>
						<MiningField name="HeartDiseaseorAttack"/>
						<MiningField name="Sex"/>
						<MiningField name="CholCheck"/>
						<MiningField name="Veggies"/>
						<MiningField name="Stroke"/>
						<MiningField name="PhysHlth"/>
						<MiningField name="Smoker"/>
						<MiningField name="Fruits"/>
						<MiningField name="MentHlth"/>
						<MiningField name="PhysActivity"/>
					</MiningSchema>
					<Output>
						<OutputField name="decisionFunction(1.0)" optype="continuous" dataType="double" isFinalResult="false"/>
						<OutputField name="sigmoid(decisionFunction(1.0))" optype="continuous" dataType="double" feature="transformedValue" isFinalResult="false">
							<Apply function="/">
								<Constant dataType="double">1.0</Constant>
								<Apply function="+">
									<Constant dataType="double">1.0</Constant>
									<Apply function="exp">
										<Apply function="*">
											<Constant dataType="double">-1.0</Constant>
											<FieldRef field="decisionFunction(1.0)"/>
										</Apply>
									</Apply>
								</Apply>
							</Apply>
						</OutputField>
					</Output>
					<Targets>
						<Target rescaleConstant="-2.4250262830007743E-4" rescaleFactor="0.1"/>
					</Targets>
					<LocalTransformations>
						<DerivedField name="double(HighBP)" optype="continuous" dataType="double">
							<FieldRef field="HighBP"/>
						</DerivedField>
						<DerivedField name="double(GenHlth)" optype="continuous" dataType="double">
							<FieldRef field="GenHlth"/>
						</DerivedField>
						<DerivedField name="double(Age)" optype="continuous" dataType="double">
							<FieldRef field="Age"/>
						</DerivedField>
						<DerivedField name="double(BMI)" optype="continuous" dataType="double">
							<FieldRef field="BMI"/>
						</DerivedField>
						<DerivedField name="double(HighChol)" optype="continuous" dataType="double">
							<FieldRef field="HighChol"/>
						</DerivedField>
						<DerivedField name="double(HvyAlcoholConsump)" optype="continuous" dataType="double">
							<FieldRef field="HvyAlcoholConsump"/>
						</DerivedField>
						<DerivedField name="double(DiffWalk)" optype="continuous" dataType="double">
							<FieldRef field="DiffWalk"/>
						</DerivedField>
						<DerivedField name="double(HeartDiseaseorAttack)" optype="continuous" dataType="double">
							<FieldRef field="HeartDiseaseorAttack"/>
						</DerivedField>
						<DerivedField name="double(Sex)" optype="continuous" dataType="double">
							<FieldRef field="Sex"/>
						</DerivedField>
						<DerivedField name="double(CholCheck)" optype="continuous" dataType="double">
							<FieldRef field="CholCheck"/>
						</DerivedField>
						<DerivedField name="double(Veggies)" optype="continuous" dataType="double">
							<FieldRef field="Veggies"/>
						</DerivedField>
						<DerivedField name="double(Stroke)" optype="continuous" dataType="double">
							<FieldRef field="Stroke"/>
						</DerivedField>
						<DerivedField name="double(PhysHlth)" optype="continuous" dataType="double">
							<FieldRef field="PhysHlth"/>
						</DerivedField>
						<DerivedField name="double(Smoker)" optype="continuous" dataType="double">
							<FieldRef field="Smoker"/>
						</DerivedField>
						<DerivedField name="double(Fruits)" optype="continuous" dataType="double">
							<FieldRef field="Fruits"/>
						</DerivedField>
						<DerivedField name="double(MentHlth)" optype="continuous" dataType="double">
							<FieldRef field="MentHlth"/>
						</DerivedField>
						<DerivedField name="double(PhysActivity)" optype="continuous" dataType="double">
							<FieldRef field="PhysActivity"/>
						</DerivedField>
					</LocalTransformations>
					<Segmentation multipleModelMethod="sum" missingPredictionTreatment="returnMissing">
						<Segment id="1">
							<True/>
							<TreeModel functionName="regression" missingValueStrategy="nullPrediction" noTrueChildStrategy="returnLastPrediction">
								<MiningSchema>
									<MiningField name="double(HighBP)"/>
									<MiningField name="double(GenHlth)"/>
									<MiningField name="double(Age)"/>
									<MiningField name="double(BMI)"/>
								</MiningSchema>
								<Node score="1.2633892781582463">
									<True/>
									<Node score="0.1396477091411624">
										<SimplePredicate field="double(HighBP)" operator="lessOrEqual" value="0.5"/>
										<Node score="-0.9309263422280876">
											<SimplePredicate field="double(GenHlth)" operator="lessOrEqual" value="2.5"/>
											<Node score="-1.5867716549770334">
												<SimplePredicate field="double(Age)" operator="lessOrEqual" value="9.5"/>
											</Node>
										</Node>
										<Node score="-0.8045543113332618">
											<SimplePredicate field="double(Age)" operator="lessOrEqual" value="6.5"/>
										</Node>
									</Node>
									<Node score="0.2977782538866673">
										<SimplePredicate field="double(GenHlth)" operator="lessOrEqual" value="2.5"/>
										<Node score="-0.4560416570830225">
											<SimplePredicate field="double(BMI)" operator="lessOrEqual" value="29.5"/>
										</Node>
									</Node>
									<Node score="0.7281235542240909">
										<SimplePredicate field="double(BMI)" operator="lessOrEqual" value="31.5"/>
									</Node>
								</Node>
							</TreeModel>
						</Segment>
						<Segment id="2">
							<True/>
							<TreeModel functionName="regression" missingValueStrategy="nullPrediction" noTrueChildStrategy="returnLastPrediction">
								<MiningSchema>
									<MiningField name="double(HighBP)"/>
									<MiningField name="double(GenHlth)"/>
									<MiningField name="double(Age)"/>
									<MiningField name="double(BMI)"/>
									<MiningField name="double(HighChol)"/>
								</MiningSchema>
								<Node score="1.050163188244005">
									<True/>
									<Node score="0.03121899843247854">
										<SimplePredicate field="double(HighBP)" operator="lessOrEqual" value="0.5"/>
										<Node score="-0.9406703735691163">
											<SimplePredicate field="double(GenHlth)" operator="lessOrEqual" value="2.5"/>
											<Node score="-1.4876057704849586">
												<SimplePredicate field="double(Age)" operator="lessOrEqual" value="8.5"/>
											</Node>
										</Node>
										<Node score="-1.0726860567260175">
											<SimplePredicate field="double(Age)" operator="lessOrEqual" value="4.5"/>
										</Node>
									</Node>
									<Node score="0.17387835887265674">
										<SimplePredicate field="double(GenHlth)" operator="lessOrEqual" value="2.5"/>
										<Node score="-0.5131649466880229">
											<SimplePredicate field="double(BMI)" operator="lessOrEqual" value="27.5"/>
										</Node>
									</Node>
									<Node score="0.49799083943191597">
										<SimplePredicate field="double(HighChol)" operator="lessOrEqual" value="0.5"/>
									</Node>
								</Node>
							</TreeModel>
						</Segment>
						<Segment id="3">
							<True/>
							<TreeModel functionName="regression" missingValueStrategy="nullPrediction" noTrueChildStrategy="returnLastPrediction">
								<MiningSchema>
									<MiningField name="double(HighBP)"/>
									<MiningField name="double(GenHlth)"/>
									<MiningField name="double(BMI)"/>
									<MiningField name="double(HighChol)"/>
								</MiningSchema>
								<Node score="0.9600379829112939">
									<True/>
									<Node score="0.15790986755958097">
										<SimplePredicate field="double(HighBP)" operator="lessOrEqual" value="0.5"/>
										<Node score="-0.7716805914170553">
											<SimplePredicate field="double(GenHlth)" operator="lessOrEqual" value="2.5"/>
											<Node score="-1.3318663276384588">
												<SimplePredicate field="double(BMI)" operator="lessOrEqual" value="28.5"/>
											</Node>
										</Node>
										<Node score="-0.6367092755544828">
											<SimplePredicate field="double(BMI)" operator="lessOrEqual" value="26.5"/>
										</Node>
									</Node>
									<Node score="0.17119687211536172">
										<SimplePredicate field="double(GenHlth)" operator="lessOrEqual" value="2.5"/>
										<Node score="-0.4899730423198766">
											<SimplePredicate field="double(HighChol)" operator="lessOrEqual" value="0.5"/>
										</Node>
									</Node>
									<Node score="0.4002999531176107">
										<SimplePredicate field="double(BMI)" operator="lessOrEqual" value="27.5"/>
									</Node>
								</Node>
							</TreeModel>
						</Segment>
						<Segment id="4">
							<True/>
							<TreeModel functionName="regression" missingValueStrategy="nullPrediction" noTrueChildStrategy="returnLastPrediction">
								<MiningSchema>
									<MiningField name="double(HighBP)"/>
									<MiningField name="double(GenHlth)"/>
									<MiningField name="double(Age)"/>
									<MiningField name="double(BMI)"/>
									<MiningField name="double(HighChol)"/>
								</MiningSchema>
								<Node score="0.9826740786827171">
									<True/>
									<Node score="0.3237382272805915">
										<SimplePredicate field="double(HighBP)" operator="lessOrEqual" value="0.5"/>
										<Node score="-0.6428859524828872">
											<SimplePredicate field="double(GenHlth)" operator="lessOrEqual" value="2.5"/>
											<Node score="-1.2287257579123512">
												<SimplePredicate field="double(Age)" operator="lessOrEqual" value="9.5"/>
											</Node>
										</Node>
										<Node score="-0.4400644825940052">
											<SimplePredicate field="double(HighChol)" operator="lessOrEqual" value="0.5"/>
										</Node>
									</Node>
									<Node score="0.39467402074864205">
										<SimplePredicate field="double(GenHlth)" operator="lessOrEqual" value="2.5"/>
										<Node score="-0.30131902324579724">
											<SimplePredicate field="double(BMI)" operator="lessOrEqual" value="31.5"/>
										</Node>
									</Node>
									<Node score="0.4754447871450685">
										<SimplePredicate field="double(GenHlth)" operator="lessOrEqual" value="3.5"/>
									</Node>
								</Node>
							</TreeModel>
						</Segment>
						<Segment id="5">
							<True/>
							<TreeModel functionName="regression" missingValueStrategy="nullPrediction" noTrueChildStrategy="returnLastPrediction">
								<MiningSchema>
									<MiningField name="double(HighBP)"/>
									<MiningField name="double(GenHlth)"/>
									<MiningField name="double(Age)"/>
									<MiningField name="double(BMI)"/>
									<MiningField name="double(HighChol)"/>
								</MiningSchema>
								<Node score="0.8180353797526903">
									<True/>
									<Node score="0.14271448129537617">
										<SimplePredicate field="double(HighBP)" operator="lessOrEqual" value="0.5"/>
										<Node score="-0.6596082263698512">
											<SimplePredicate field="double(GenHlth)" operator="lessOrEqual" value="2.5"/>
											<Node score="-1.1739695951471647">
												<SimplePredicate field="double(BMI)" operator="lessOrEqual" value="27.5"/>
											</Node>
										</Node>
										<Node score="-0.6433794350244456">
											<SimplePredicate field="double(Age)" operator="lessOrEqual" value="6.5"/>
										</Node>
									</Node>
									<Node score="0.1096660282335003">
										<SimplePredicate field="double(GenHlth)" operator="lessOrEqual" value="2.5"/>
										<Node score="-0.5666055922492387">
											<SimplePredicate field="double(Age)" operator="lessOrEqual" value="8.5"/>
										</Node>
									</Node>
									<Node score="0.30698499835877796">
										<SimplePredicate field="double(HighChol)" operator="lessOrEqual" value="0.5"/>
									</Node>
								</Node>
							</TreeModel>
						</Segment>
						<Segment id="6">
							<True/>
							<TreeModel functionName="regression" missingValueStrategy="nullPrediction" noTrueChildStrategy="returnLastPrediction">
								<MiningSchema>
									<MiningField name="double(HighBP)"/>
									<MiningField name="double(GenHlth)"/>
									<MiningField name="double(Age)"/>
									<MiningField name="double(BMI)"/>
								</MiningSchema>
								<Node score="0.98656191165333">
									<True/>
									<Node score="0.6068626652981602">
										<SimplePredicate field="double(HighBP)" operator="lessOrEqual" value="0.5"/>
										<Node score="-0.3291249715342402">
											<SimplePredicate field="double(GenHlth)" operator="lessOrEqual" value="3.5"/>
											<Node score="-0.9664722948238842">
												<SimplePredicate field="double(Age)" operator="lessOrEqual" value="8.5"/>
											</Node>
										</Node>
										<Node score="-0.37579296216606567">
											<SimplePredicate field="double(BMI)" operator="lessOrEqual" value="24.5"/>
										</Node>
									</Node>
									<Node score="0.39902064443035706">
										<SimplePredicate field="double(GenHlth)" operator="lessOrEqual" value="3.5"/>
										<Node score="-0.23219219408362315">
											<SimplePredicate field="double(BMI)" operator="lessOrEqual" value="27.5"/>
										</Node>
									</Node>
									<Node score="0.5575956275034893">
										<SimplePredicate field="double(BMI)" operator="lessOrEqual" value="28.5"/>
									</Node>
								</Node>
							</TreeModel>
						</Segment>
						<Segment id="7">
							<True/>
							<TreeModel functionName="regression" missingValueStrategy="nullPrediction" noTrueChildStrategy="returnLastPrediction">
								<MiningSchema>
									<MiningField name="double(HighBP)"/>
									<MiningField name="double(GenHlth)"/>
									<MiningField name="double(Age)"/>
									<MiningField name="double(BMI)"/>
									<MiningField name="double(HighChol)"/>
								</MiningSchema>
								<Node score="0.8767996803129452">
									<True/>
									<Node score="0.15494339914902533">
										<SimplePredicate field="double(GenHlth)" operator="lessOrEqual" value="2.5"/>
										<Node score="-0.6849812711298342">
											<SimplePredicate field="double(HighBP)" operator="lessOrEqual" value="0.5"/>
											<Node score="-1.2037102786811935">
												<SimplePredicate field="double(GenHlth)" operator="lessOrEqual" value="1.5"/>
											</Node>
										</Node>
										<Node score="-0.4304376848597918">
											<SimplePredicate field="double(HighChol)" operator="lessOrEqual" value="0.5"/>
										</Node>
									</Node>
									<Node score="0.26691129754993626">
										<SimplePredicate field="double(HighChol)" operator="lessOrEqual" value="0.5"/>
										<Node score="-0.5830793334936009">
											<SimplePredicate field="double(Age)" operator="lessOrEqual" value="7.5"/>
										</Node>
									</Node>
									<Node score="0.36078881329760026">
										<SimplePredicate field="double(BMI)" operator="lessOrEqual" value="30.5"/>
									</Node>
								</Node>
							</TreeModel>
						</Segment>
						<Segment id="8">
							<True/>
							<TreeModel functionName="regression" missingValueStrategy="nullPrediction" noTrueChildStrategy="returnLastPrediction">
								<MiningSchema>
									<MiningField name="double(GenHlth)"/>
									<MiningField name="double(Age)"/>
									<MiningField name="double(BMI)"/>
									<MiningField name="double(HighChol)"/>
								</MiningSchema>
								<Node score="0.5999899379035797">
									<True/>
									<Node score="0.10629999678156507">
										<SimplePredicate field="double(GenHlth)" operator="lessOrEqual" value="2.5"/>
										<Node score="-0.4210712193604931">
											<SimplePredicate field="double(Age)" operator="lessOrEqual" value="8.5"/>
											<Node score="-1.0610833150865095">
												<SimplePredicate field="double(HighChol)" operator="lessOrEqual" value="0.5"/>
											</Node>
										</Node>
										<Node score="-0.6677082508267814">
											<SimplePredicate field="double(BMI)" operator="lessOrEqual" value="25.5"/>
										</Node>
									</Node>
									<Node score="0.15861629264044266">
										<SimplePredicate field="double(BMI)" operator="lessOrEqual" value="26.5"/>
										<Node score="-0.5273543034568687">
											<SimplePredicate field="double(HighChol)" operator="lessOrEqual" value="0.5"/>
										</Node>
									</Node>
									<Node score="-0.3106139499798153">
										<SimplePredicate field="double(Age)" operator="lessOrEqual" value="5.5"/>
									</Node>
								</Node>
							</TreeModel>
						</Segment>
						<Segment id="9">
							<True/>
							<TreeModel functionName="regression" missingValueStrategy="nullPrediction" noTrueChildStrategy="returnLastPrediction">
								<MiningSchema>
									<MiningField name="double(HighBP)"/>
									<MiningField name="double(GenHlth)"/>
									<MiningField name="double(Age)"/>
									<MiningField name="double(BMI)"/>
									<MiningField name="double(HvyAlcoholConsump)"/>
								</MiningSchema>
								<Node score="-0.26848282133097856">
									<True/>
									<Node score="0.24477228039992843">
										<SimplePredicate field="double(HighBP)" operator="lessOrEqual" value="0.5"/>
										<Node score="-0.039143116545098146">
											<SimplePredicate field="double(BMI)" operator="lessOrEqual" value="28.5"/>
											<Node score="-0.8115839244606754">
												<SimplePredicate field="double(GenHlth)" operator="lessOrEqual" value="3.5"/>
											</Node>
										</Node>
										<Node score="-0.49709067972688814">
											<SimplePredicate field="double(Age)" operator="lessOrEqual" value="6.5"/>
										</Node>
									</Node>
									<Node score="0.4728657442952607">
										<SimplePredicate field="double(GenHlth)" operator="lessOrEqual" value="3.5"/>
										<Node score="-0.07009304545685704">
											<SimplePredicate field="double(BMI)" operator="lessOrEqual" value="31.5"/>
										</Node>
									</Node>
									<Node score="0.7345433652766775">
										<SimplePredicate field="double(HvyAlcoholConsump)" operator="lessOrEqual" value="0.5"/>
									</Node>
								</Node>
							</TreeModel>
						</Segment>
						<Segment id="10">
							<True/>
							<TreeModel functionName="regression" missingValueStrategy="nullPrediction" noTrueChildStrategy="returnLastPrediction">
								<MiningSchema>
									<MiningField name="double(GenHlth)"/>
									<MiningField name="double(Age)"/>
									<MiningField name="double(BMI)"/>
									<MiningField name="double(HighChol)"/>
									<MiningField name="double(DiffWalk)"/>
								</MiningSchema>
								<Node score="0.8860180171805877">
									<True/>
									<Node score="0.3981049939178639">
										<SimplePredicate field="double(HighChol)" operator="lessOrEqual" value="0.5"/>
										<Node score="-0.0162431197382269">
											<SimplePredicate field="double(Age)" operator="lessOrEqual" value="8.5"/>
											<Node score="-0.8633836627352153">
												<SimplePredicate field="double(BMI)" operator="lessOrEqual" value="34.5"/>
											</Node>
										</Node>
										<Node score="-0.3188697130980777">
											<SimplePredicate field="double(BMI)" operator="lessOrEqual" value="28.5"/>
										</Node>
									</Node>
									<Node score="0.28343345380598034">
										<SimplePredicate field="double(BMI)" operator="lessOrEqual" value="30.5"/>
										<Node score="-0.24978800668742215">
											<SimplePredicate field="double(GenHlth)" operator="lessOrEqual" value="2.5"/>
										</Node>
									</Node>
									<Node score="0.4921333643493362">
										<SimplePredicate field="double(DiffWalk)" operator="lessOrEqual" value="0.5"/>
									</Node>
								</Node>
							</TreeModel>
						</Segment>
						<Segment id="11">
							<True/>
							<TreeModel functionName="regression" missingValueStrategy="nullPrediction" noTrueChildStrategy="returnLastPrediction">
								<MiningSchema>
									<MiningField name="double(HighBP)"/>
									<MiningField name="double(GenHlth)"/>
									<MiningField name="double(Age)"/>
									<MiningField name="double(BMI)"/>
								</MiningSchema>
								<Node score="0.6767111242742174">
									<True/>
									<Node score="0.48067659977636035">
										<SimplePredicate field="double(HighBP)" operator="lessOrEqual" value="0.5"/>
										<Node score="-0.024789137436474908">
											<SimplePredicate field="double(GenHlth)" operator="lessOrEqual" value="3.5"/>
											<Node score="-0.65454384654876">
												<SimplePredicate field="double(BMI)" operator="lessOrEqual" value="31.5"/>
											</Node>
										</Node>
										<Node score="-0.2967475019479598">
											<SimplePredicate field="double(BMI)" operator="lessOrEqual" value="24.5"/>
										</Node>
									</Node>
									<Node score="0.18648273293701767">
										<SimplePredicate field="double(GenHlth)" operator="lessOrEqual" value="3.5"/>
										<Node score="-0.5404820691099677">
											<SimplePredicate field="double(Age)" operator="lessOrEqual" value="6.5"/>
										</Node>
									</Node>
									<Node score="0.07458994036797363">
										<SimplePredicate field="double(BMI)" operator="lessOrEqual" value="23.5"/>
									</Node>
								</Node>
							</TreeModel>
						</Segment>
						<Segment id="12">
							<True/>
							<TreeModel functionName="regression" missingValueStrategy="nullPrediction" noTrueChildStrategy="returnLastPrediction">
								<MiningSchema>
									<MiningField name="double(GenHlth)"/>
									<MiningField name="double(Age)"/>
									<MiningField name="double(BMI)"/>
									<MiningField name="double(HighChol)"/>
								</MiningSchema>
								<Node score="0.4474613859689452">
									<True/>
									<Node score="0.30682532180495076">
										<SimplePredicate field="double(GenHlth)" operator="lessOrEqual" value="2.5"/>
										<Node score="-0.25911431154773273">
											<SimplePredicate field="double(Age)" operator="lessOrEqual" value="9.5"/>
											<Node score="-0.8570584133804753">
												<SimplePredicate field="double(HighChol)" operator="lessOrEqual" value="0.5"/>
											</Node>
										</Node>
										<Node score="-0.2982616491238891">
											<SimplePredicate field="double(BMI)" operator="lessOrEqual" value="27.5"/>
										</Node>
									</Node>
									<Node score="0.0680989363009187">
										<SimplePredicate field="double(Age)" operator="lessOrEqual" value="5.5"/>
										<Node score="-0.6551472533913879">
											<SimplePredicate field="double(HighChol)" operator="lessOrEqual" value="0.5"/>
										</Node>
									</Node>
									<Node score="-0.10563486808080146">
										<SimplePredicate field="double(BMI)" operator="lessOrEqual" value="25.5"/>
									</Node>
								</Node>
							</TreeModel>
						</Segment>
						<Segment id="13">
							<True/>
							<TreeModel functionName="regression" missingValueStrategy="nullPrediction" noTrueChildStrategy="returnLastPrediction">
								<MiningSchema>
									<MiningField name="double(GenHlth)"/>
									<MiningField name="double(BMI)"/>
									<MiningField name="double(HighChol)"/>
									<MiningField name="double(DiffWalk)"/>
									<MiningField name="double(HeartDiseaseorAttack)"/>
								</MiningSchema>
								<Node score="0.7826900782930818">
									<True/>
									<Node score="0.7311327858760636">
										<SimplePredicate field="double(HighChol)" operator="lessOrEqual" value="0.5"/>
										<Node score="0.05077698285164365">
											<SimplePredicate field="double(HeartDiseaseorAttack)" operator="lessOrEqual" value="0.5"/>
											<Node score="-0.5733099549562319">
												<SimplePredicate field="double(BMI)" operator="lessOrEqual" value="31.5"/>
											</Node>
										</Node>
										<Node score="0.23496674720084312">
											<SimplePredicate field="double(BMI)" operator="lessOrEqual" value="25.5"/>
										</Node>
									</Node>
									<Node score="0.15629231829259377">
										<SimplePredicate field="double(BMI)" operator="lessOrEqual" value="31.5"/>
										<Node score="-0.6456399749115133">
											<SimplePredicate field="double(GenHlth)" operator="lessOrEqual" value="1.5"/>
										</Node>
									</Node>
									<Node score="0.4562234182126262">
										<SimplePredicate field="double(DiffWalk)" operator="lessOrEqual" value="0.5"/>
									</Node>
								</Node>
							</TreeModel>
						</Segment>
						<Segment id="14">
							<True/>
							<TreeModel functionName="regression" missingValueStrategy="nullPrediction" noTrueChildStrategy="returnLastPrediction">
								<MiningSchema>
									<MiningField name="double(HighBP)"/>
									<MiningField name="double(GenHlth)"/>
									<MiningField name="double(Age)"/>
									<MiningField name="double(BMI)"/>
									<MiningField name="double(HvyAlcoholConsump)"/>
									<MiningField name="double(DiffWalk)"/>
								</MiningSchema>
								<Node score="-0.2541545725661007">
									<True/>
									<Node score="0.40182069254111247">
										<SimplePredicate field="double(HighBP)" operator="lessOrEqual" value="0.5"/>
										<Node score="-0.15366611215669088">
											<SimplePredicate field="double(GenHlth)" operator="lessOrEqual" value="3.5"/>
											<Node score="-0.6567643150951982">
												<SimplePredicate field="double(Age)" operator="lessOrEqual" value="8.5"/>
											</Node>
										</Node>
										<Node score="-0.2314830267544028">
											<SimplePredicate field="double(BMI)" operator="lessOrEqual" value="24.5"/>
										</Node>
									</Node>
									<Node score="-0.7783277573873792">
										<SimplePredicate field="double(DiffWalk)" operator="lessOrEqual" value="0.5"/>
										<Node score="0.12779458199464414">
											<SimplePredicate field="double(HvyAlcoholConsump)" operator="lessOrEqual" value="0.5"/>
										</Node>
									</Node>
									<Node score="0.5663136466115768">
										<SimplePredicate field="double(HvyAlcoholConsump)" operator="lessOrEqual" value="0.5"/>
									</Node>
								</Node>
							</TreeModel>
						</Segment>
						<Segment id="15">
							<True/>
							<TreeModel functionName="regression" missingValueStrategy="nullPrediction" noTrueChildStrategy="returnLastPrediction">
								<MiningSchema>
									<MiningField name="double(GenHlth)"/>
									<MiningField name="double(Age)"/>
									<MiningField name="double(BMI)"/>
								</MiningSchema>
								<Node score="0.5140370169479974">
									<True/>
									<Node score="0.17867124641110338">
										<SimplePredicate field="double(GenHlth)" operator="lessOrEqual" value="2.5"/>
										<Node score="-0.40224734092599684">
											<SimplePredicate field="double(Age)" operator="lessOrEqual" value="9.5"/>
											<Node score="-0.9493719573815785">
												<SimplePredicate field="double(GenHlth)" operator="lessOrEqual" value="1.5"/>
											</Node>
										</Node>
										<Node score="-0.3913288301753715">
											<SimplePredicate field="double(BMI)" operator="lessOrEqual" value="25.5"/>
										</Node>
									</Node>
									<Node score="-0.07704772870411102">
										<SimplePredicate field="double(Age)" operator="lessOrEqual" value="4.5"/>
										<Node score="-0.7597645472642272">
											<SimplePredicate field="double(GenHlth)" operator="lessOrEqual" value="3.5"/>
										</Node>
									</Node>
									<Node score="0.09883738404666288">
										<SimplePredicate field="double(BMI)" operator="lessOrEqual" value="31.5"/>
									</Node>
								</Node>
							</TreeModel>
						</Segment>
						<Segment id="16">
							<True/>
							<TreeModel functionName="regression" missingValueStrategy="nullPrediction" noTrueChildStrategy="returnLastPrediction">
								<MiningSchema>
									<MiningField name="double(GenHlth)"/>
									<MiningField name="double(Age)"/>
									<MiningField name="double(BMI)"/>
									<MiningField name="double(HighChol)"/>
								</MiningSchema>
								<Node score="0.6084656484001945">
									<True/>
									<Node score="0.11156259261319447">
										<SimplePredicate field="double(HighChol)" operator="lessOrEqual" value="0.5"/>
										<Node score="0.07651153441294055">
											<SimplePredicate field="double(Age)" operator="lessOrEqual" value="8.5"/>
											<Node score="-0.6442668612815216">
												<SimplePredicate field="double(BMI)" operator="lessOrEqual" value="36.5"/>
											</Node>
										</Node>
										<Node score="-0.7153034219672123">
											<SimplePredicate field="double(GenHlth)" operator="lessOrEqual" value="1.5"/>
										</Node>
									</Node>
									<Node score="0.04271522793596757">
										<SimplePredicate field="double(BMI)" operator="lessOrEqual" value="27.5"/>
										<Node score="-0.6749406483839455">
											<SimplePredicate field="double(GenHlth)" operator="lessOrEqual" value="1.5"/>
										</Node>
									</Node>
									<Node score="0.2718955375337168">
										<SimplePredicate field="double(BMI)" operator="lessOrEqual" value="34.5"/>
									</Node>
								</Node>
							</TreeModel>
						</Segment>
						<Segment id="17">
							<True/>
							<TreeModel functionName="regression" missingValueStrategy="nullPrediction" noTrueChildStrategy="returnLastPrediction">
								<MiningSchema>
									<MiningField name="double(GenHlth)"/>
									<MiningField name="double(Age)"/>
									<MiningField name="double(BMI)"/>
									<MiningField name="double(HighChol)"/>
									<MiningField name="double(HvyAlcoholConsump)"/>
								</MiningSchema>
								<Node score="-0.34932874429252464">
									<True/>
									<Node score="0.2073864896916522">
										<SimplePredicate field="double(GenHlth)" operator="lessOrEqual" value="3.5"/>
										<Node score="-0.03577409378221999">
											<SimplePredicate field="double(Age)" operator="lessOrEqual" value="8.5"/>
											<Node score="-0.5834531161024402">
												<SimplePredicate field="double(BMI)" operator="lessOrEqual" value="32.5"/>
											</Node>
										</Node>
										<Node score="-0.3016346467403427">
											<SimplePredicate field="double(BMI)" operator="lessOrEqual" value="25.5"/>
										</Node>
									</Node>
									<Node score="0.11122443567530124">
										<SimplePredicate field="double(BMI)" operator="lessOrEqual" value="23.5"/>
										<Node score="-0.3409535827248882">
											<SimplePredicate field="double(HighChol)" operator="lessOrEqual" value="0.5"/>
										</Node>
									</Node>
									<Node score="0.48281845771716586">
										<SimplePredicate field="double(HvyAlcoholConsump)" operator="lessOrEqual" value="0.5"/>
									</Node>
								</Node>
							</TreeModel>
						</Segment>
						<Segment id="18">
							<True/>
							<TreeModel functionName="regression" missingValueStrategy="nullPrediction" noTrueChildStrategy="returnLastPrediction">
								<MiningSchema>
									<MiningField name="double(GenHlth)"/>
									<MiningField name="double(Age)"/>
									<MiningField name="double(BMI)"/>
									<MiningField name="double(DiffWalk)"/>
									<MiningField name="double(HeartDiseaseorAttack)"/>
									<MiningField name="double(Sex)"/>
								</MiningSchema>
								<Node score="0.6127062900711371">
									<True/>
									<Node score="0.07780333723895193">
										<SimplePredicate field="double(DiffWalk)" operator="lessOrEqual" value="0.5"/>
										<Node score="-0.5165046125517146">
											<SimplePredicate field="double(GenHlth)" operator="lessOrEqual" value="1.5"/>
											<Node score="-0.9531079153562148">
												<SimplePredicate field="double(Sex)" operator="lessOrEqual" value="0.5"/>
											</Node>
										</Node>
										<Node score="-0.44793569593276017">
											<SimplePredicate field="double(Age)" operator="lessOrEqual" value="6.5"/>
										</Node>
									</Node>
									<Node score="0.33968590158938095">
										<SimplePredicate field="double(HeartDiseaseorAttack)" operator="lessOrEqual" value="0.5"/>
										<Node score="-0.2431137712193285">
											<SimplePredicate field="double(BMI)" operator="lessOrEqual" value="23.5"/>
										</Node>
									</Node>
									<Node score="1.056128878566065">
										<SimplePredicate field="double(GenHlth)" operator="lessOrEqual" value="2.5"/>
									</Node>
								</Node>
							</TreeModel>
						</Segment>
						<Segment id="19">
							<True/>
							<TreeModel functionName="regression" missingValueStrategy="nullPrediction" noTrueChildStrategy="returnLastPrediction">
								<MiningSchema>
									<MiningField name="double(GenHlth)"/>
									<MiningField name="double(Age)"/>
									<MiningField name="double(BMI)"/>
									<MiningField name="double(HighChol)"/>
									<MiningField name="double(HeartDiseaseorAttack)"/>
								</MiningSchema>
								<Node score="0.4760455292926975">
									<True/>
									<Node score="0.431943849070741">
										<SimplePredicate field="double(BMI)" operator="lessOrEqual" value="27.5"/>
										<Node score="-0.10770942729549929">
											<SimplePredicate field="double(HeartDiseaseorAttack)" operator="lessOrEqual" value="0.5"/>
											<Node score="-0.5334465663239675">
												<SimplePredicate field="double(HighChol)" operator="lessOrEqual" value="0.5"/>
											</Node>
										</Node>
										<Node score="0.034454560957232656">
											<SimplePredicate field="double(BMI)" operator="lessOrEqual" value="22.5"/>
										</Node>
									</Node>
									<Node score="0.1547422724092916">
										<SimplePredicate field="double(Age)" operator="lessOrEqual" value="5.5"/>
										<Node score="-0.488575982819288">
											<SimplePredicate field="double(GenHlth)" operator="lessOrEqual" value="3.5"/>
										</Node>
									</Node>
									<Node score="0.15402555199071358">
										<SimplePredicate field="double(BMI)" operator="lessOrEqual" value="34.5"/>
									</Node>
								</Node>
							</TreeModel>
						</Segment>
						<Segment id="20">
							<True/>
							<TreeModel functionName="regression" missingValueStrategy="nullPrediction" noTrueChildStrategy="returnLastPrediction">
								<MiningSchema>
									<MiningField name="double(BMI)"/>
									<MiningField name="double(HighChol)"/>
									<MiningField name="double(HvyAlcoholConsump)"/>
									<MiningField name="double(DiffWalk)"/>
									<MiningField name="double(HeartDiseaseorAttack)"/>
								</MiningSchema>
								<Node score="-0.3657397704811642">
									<True/>
									<Node score="0.5641867320344925">
										<SimplePredicate field="double(HighChol)" operator="lessOrEqual" value="0.5"/>
										<Node score="0.062227617930395544">
											<SimplePredicate field="double(HeartDiseaseorAttack)" operator="lessOrEqual" value="0.5"/>
											<Node score="-0.39790746378335135">
												<SimplePredicate field="double(BMI)" operator="lessOrEqual" value="32.5"/>
											</Node>
										</Node>
										<Node score="0.17870559542056294">
											<SimplePredicate field="double(BMI)" operator="lessOrEqual" value="25.5"/>
										</Node>
									</Node>
									<Node score="0.26460155511356953">
										<SimplePredicate field="double(BMI)" operator="lessOrEqual" value="26.5"/>
										<Node score="-0.16283658187091649">
											<SimplePredicate field="double(DiffWalk)" operator="lessOrEqual" value="0.5"/>
										</Node>
									</Node>
									<Node score="0.31237347083898653">
										<SimplePredicate field="double(HvyAlcoholConsump)" operator="lessOrEqual" value="0.5"/>
									</Node>
								</Node>
							</TreeModel>
						</Segment>
						<Segment id="21">
							<True/>
							<TreeModel functionName="regression" missingValueStrategy="nullPrediction" noTrueChildStrategy="returnLastPrediction">
								<MiningSchema>
									<MiningField name="double(GenHlth)"/>
									<MiningField name="double(Age)"/>
									<MiningField name="double(BMI)"/>
									<MiningField name="double(CholCheck)"/>
								</MiningSchema>
								<Node score="0.4836999415855754">
									<True/>
									<Node score="0.1311082264915437">
										<SimplePredicate field="double(GenHlth)" operator="lessOrEqual" value="3.5"/>
										<Node score="-0.0707933034304937">
											<SimplePredicate field="double(Age)" operator="lessOrEqual" value="8.5"/>
											<Node score="-0.5063164556896521">
												<SimplePredicate field="double(BMI)" operator="lessOrEqual" value="31.5"/>
											</Node>
										</Node>
										<Node score="-0.398963924096444">
											<SimplePredicate field="double(BMI)" operator="lessOrEqual" value="23.5"/>
										</Node>
									</Node>
									<Node score="-0.02825556879699561">
										<SimplePredicate field="double(BMI)" operator="lessOrEqual" value="23.5"/>
										<Node score="-1.2679310016806944">
											<SimplePredicate field="double(CholCheck)" operator="lessOrEqual" value="0.5"/>
										</Node>
									</Node>
									<Node score="0.21279649910800527">
										<SimplePredicate field="double(Age)" operator="lessOrEqual" value="8.5"/>
									</Node>
								</Node>
							</TreeModel>
						</Segment>
						<Segment id="22">
							<True/>
							<TreeModel functionName="regression" missingValueStrategy="nullPrediction" noTrueChildStrategy="returnLastPrediction">
								<MiningSchema>
									<MiningField name="double(HighBP)"/>
									<MiningField name="double(GenHlth)"/>
									<MiningField name="double(BMI)"/>
									<MiningField name="double(HvyAlcoholConsump)"/>
									<MiningField name="double(HeartDiseaseorAttack)"/>
									<MiningField name="double(CholCheck)"/>
								</MiningSchema>
								<Node score="-0.2005845294620009">
									<True/>
									<Node score="0.6488185929708185">
										<SimplePredicate field="double(HighBP)" operator="lessOrEqual" value="0.5"/>
										<Node score="-0.1755870841179404">
											<SimplePredicate field="double(HeartDiseaseorAttack)" operator="lessOrEqual" value="0.5"/>
											<Node score="-0.7952419797436217">
												<SimplePredicate field="double(GenHlth)" operator="lessOrEqual" value="1.5"/>
											</Node>
										</Node>
										<Node score="0.021086371874474406">
											<SimplePredicate field="double(BMI)" operator="lessOrEqual" value="25.5"/>
										</Node>
									</Node>
									<Node score="0.19657875086919188">
										<SimplePredicate field="double(HvyAlcoholConsump)" operator="lessOrEqual" value="0.5"/>
										<Node score="-1.0054094858780147">
											<SimplePredicate field="double(CholCheck)" operator="lessOrEqual" value="0.5"/>
										</Node>
									</Node>
									<Node score="-0.8251724554092124">
										<SimplePredicate field="double(BMI)" operator="lessOrEqual" value="29.5"/>
									</Node>
								</Node>
							</TreeModel>
						</Segment>
						<Segment id="23">
							<True/>
							<TreeModel functionName="regression" missingValueStrategy="nullPrediction" noTrueChildStrategy="returnLastPrediction">
								<MiningSchema>
									<MiningField name="double(GenHlth)"/>
									<MiningField name="double(Age)"/>
									<MiningField name="double(DiffWalk)"/>
									<MiningField name="double(HeartDiseaseorAttack)"/>
									<MiningField name="double(CholCheck)"/>
								</MiningSchema>
								<Node score="0.1919246542134214">
									<True/>
									<Node score="0.8763693873045749">
										<SimplePredicate field="double(GenHlth)" operator="lessOrEqual" value="2.5"/>
										<Node score="-0.15437023034193065">
											<SimplePredicate field="double(DiffWalk)" operator="lessOrEqual" value="0.5"/>
											<Node score="-0.6373787543539202">
												<SimplePredicate field="double(GenHlth)" operator="lessOrEqual" value="1.5"/>
											</Node>
										</Node>
										<Node score="0.27024988594899807">
											<SimplePredicate field="double(HeartDiseaseorAttack)" operator="lessOrEqual" value="0.5"/>
										</Node>
									</Node>
									<Node score="-0.03707758417680332">
										<SimplePredicate field="double(CholCheck)" operator="lessOrEqual" value="0.5"/>
										<Node score="-1.0388562417977385">
											<SimplePredicate field="double(HeartDiseaseorAttack)" operator="lessOrEqual" value="0.5"/>
										</Node>
									</Node>
									<Node score="-0.3500658254705223">
										<SimplePredicate field="double(Age)" operator="lessOrEqual" value="4.5"/>
									</Node>
								</Node>
							</TreeModel>
						</Segment>
						<Segment id="24">
							<True/>
							<TreeModel functionName="regression" missingValueStrategy="nullPrediction" noTrueChildStrategy="returnLastPrediction">
								<MiningSchema>
									<MiningField name="double(Age)"/>
									<MiningField name="double(BMI)"/>
									<MiningField name="double(HighChol)"/>
									<MiningField name="double(HvyAlcoholConsump)"/>
									<MiningField name="double(Sex)"/>
								</MiningSchema>
								<Node score="0.539039317261664">
									<True/>
									<Node score="0.2573352501312638">
										<SimplePredicate field="double(HighChol)" operator="lessOrEqual" value="0.5"/>
										<Node score="0.053972098332283086">
											<SimplePredicate field="double(Age)" operator="lessOrEqual" value="9.5"/>
											<Node score="-0.4385593814256062">
												<SimplePredicate field="double(BMI)" operator="lessOrEqual" value="34.5"/>
											</Node>
										</Node>
										<Node score="-0.11712835007895202">
											<SimplePredicate field="double(Sex)" operator="lessOrEqual" value="0.5"/>
										</Node>
									</Node>
									<Node score="-0.527244388250131">
										<SimplePredicate field="double(BMI)" operator="lessOrEqual" value="32.5"/>
										<Node score="0.08463146636982266">
											<SimplePredicate field="double(HvyAlcoholConsump)" operator="lessOrEqual" value="0.5"/>
										</Node>
									</Node>
									<Node score="0.2837858409608244">
										<SimplePredicate field="double(BMI)" operator="lessOrEqual" value="37.5"/>
									</Node>
								</Node>
							</TreeModel>
						</Segment>
						<Segment id="25">
							<True/>
							<TreeModel functionName="regression" missingValueStrategy="nullPrediction" noTrueChildStrategy="returnLastPrediction">
								<MiningSchema>
									<MiningField name="double(Age)"/>
									<MiningField name="double(BMI)"/>
									<MiningField name="double(HeartDiseaseorAttack)"/>
									<MiningField name="double(Sex)"/>
									<MiningField name="double(CholCheck)"/>
								</MiningSchema>
								<Node score="0.18581790641992332">
									<True/>
									<Node score="0.32967592834745574">
										<SimplePredicate field="double(BMI)" operator="lessOrEqual" value="25.5"/>
										<Node score="-0.14255189831266674">
											<SimplePredicate field="double(HeartDiseaseorAttack)" operator="lessOrEqual" value="0.5"/>
											<Node score="-0.4806562155402175">
												<SimplePredicate field="double(Sex)" operator="lessOrEqual" value="0.5"/>
											</Node>
										</Node>
										<Node score="0.04657561234412737">
											<SimplePredicate field="double(Sex)" operator="lessOrEqual" value="0.5"/>
										</Node>
									</Node>
									<Node score="0.17137563188735036">
										<SimplePredicate field="double(Age)" operator="lessOrEqual" value="6.5"/>
										<Node score="-0.3240892334210772">
											<SimplePredicate field="double(BMI)" operator="lessOrEqual" value="38.5"/>
										</Node>
									</Node>
									<Node score="-0.8176858220754181">
										<SimplePredicate field="double(CholCheck)" operator="lessOrEqual" value="0.5"/>
									</Node>
								</Node>
							</TreeModel>
						</Segment>
						<Segment id="26">
							<True/>
							<TreeModel functionName="regression" missingValueStrategy="nullPrediction" noTrueChildStrategy="returnLastPrediction">
								<MiningSchema>
									<MiningField name="double(GenHlth)"/>
									<MiningField name="double(Age)"/>
									<MiningField name="double(BMI)"/>
									<MiningField name="double(HighChol)"/>
									<MiningField name="double(HvyAlcoholConsump)"/>
								</MiningSchema>
								<Node score="-0.312612350045312">
									<True/>
									<Node score="0.07313885735344504">
										<SimplePredicate field="double(GenHlth)" operator="lessOrEqual" value="3.5"/>
										<Node score="-0.2672050721052514">
											<SimplePredicate field="double(Age)" operator="lessOrEqual" value="7.5"/>
											<Node score="-0.7620309803125452">
												<SimplePredicate field="double(Age)" operator="lessOrEqual" value="3.5"/>
											</Node>
										</Node>
										<Node score="-0.36710122616981883">
											<SimplePredicate field="double(BMI)" operator="lessOrEqual" value="23.5"/>
										</Node>
									</Node>
									<Node score="0.05145968714674382">
										<SimplePredicate field="double(BMI)" operator="lessOrEqual" value="21.5"/>
										<Node score="-0.4562592979452072">
											<SimplePredicate field="double(HighChol)" operator="lessOrEqual" value="0.5"/>
										</Node>
									</Node>
									<Node score="0.3165396559565748">
										<SimplePredicate field="double(HvyAlcoholConsump)" operator="lessOrEqual" value="0.5"/>
									</Node>
								</Node>
							</TreeModel>
						</Segment>
						<Segment id="27">
							<True/>
							<TreeModel functionName="regression" missingValueStrategy="nullPrediction" noTrueChildStrategy="returnLastPrediction">
								<MiningSchema>
									<MiningField name="double(GenHlth)"/>
									<MiningField name="double(Age)"/>
									<MiningField name="double(HvyAlcoholConsump)"/>
									<MiningField name="double(DiffWalk)"/>
									<MiningField name="double(HeartDiseaseorAttack)"/>
									<MiningField name="double(Sex)"/>
									<MiningField name="double(CholCheck)"/>
								</MiningSchema>
								<Node score="-0.3062027443611276">
									<True/>
									<Node score="0.03715346751619945">
										<SimplePredicate field="double(DiffWalk)" operator="lessOrEqual" value="0.5"/>
										<Node score="-0.3433697913106089">
											<SimplePredicate field="double(GenHlth)" operator="lessOrEqual" value="1.5"/>
											<Node score="-0.7864081153359018">
												<SimplePredicate field="double(Sex)" operator="lessOrEqual" value="0.5"/>
											</Node>
										</Node>
										<Node score="-0.3785740302745831">
											<SimplePredicate field="double(Age)" operator="lessOrEqual" value="5.5"/>
										</Node>
									</Node>
									<Node score="0.0683913022088075">
										<SimplePredicate field="double(CholCheck)" operator="lessOrEqual" value="0.5"/>
										<Node score="-0.8678318920380986">
											<SimplePredicate field="double(HeartDiseaseorAttack)" operator="lessOrEqual" value="0.5"/>
										</Node>
									</Node>
									<Node score="0.2893387908792836">
										<SimplePredicate field="double(HvyAlcoholConsump)" operator="lessOrEqual" value="0.5"/>
									</Node>
								</Node>
							</TreeModel>
						</Segment>
						<Segment id="28">
							<True/>
							<TreeModel functionName="regression" missingValueStrategy="nullPrediction" noTrueChildStrategy="returnLastPrediction">
								<MiningSchema>
									<MiningField name="double(Age)"/>
									<MiningField name="double(BMI)"/>
									<MiningField name="double(HeartDiseaseorAttack)"/>
									<MiningField name="double(CholCheck)"/>
									<MiningField name="double(Veggies)"/>
								</MiningSchema>
								<Node score="0.46186659241301636">
									<True/>
									<Node score="0.18647319113719182">
										<SimplePredicate field="double(BMI)" operator="lessOrEqual" value="30.5"/>
										<Node score="0.046626411702725426">
											<SimplePredicate field="double(HeartDiseaseorAttack)" operator="lessOrEqual" value="0.5"/>
											<Node score="-0.2688145464963812">
												<SimplePredicate field="double(Age)" operator="lessOrEqual" value="10.5"/>
											</Node>
										</Node>
										<Node score="0.46867277950605807">
											<SimplePredicate field="double(Veggies)" operator="lessOrEqual" value="0.5"/>
										</Node>
									</Node>
									<Node score="0.05919292778563357">
										<SimplePredicate field="double(Age)" operator="lessOrEqual" value="8.5"/>
										<Node score="-0.9113978649773247">
											<SimplePredicate field="double(CholCheck)" operator="lessOrEqual" value="0.5"/>
										</Node>
									</Node>
									<Node score="0.20916157310714195">
										<SimplePredicate field="double(BMI)" operator="lessOrEqual" value="35.5"/>
									</Node>
								</Node>
							</TreeModel>
						</Segment>
						<Segment id="29">
							<True/>
							<TreeModel functionName="regression" missingValueStrategy="nullPrediction" noTrueChildStrategy="returnLastPrediction">
								<MiningSchema>
									<MiningField name="double(BMI)"/>
									<MiningField name="double(HighChol)"/>
									<MiningField name="double(HvyAlcoholConsump)"/>
									<MiningField name="double(HeartDiseaseorAttack)"/>
									<MiningField name="double(Sex)"/>
									<MiningField name="double(Stroke)"/>
								</MiningSchema>
								<Node score="-0.19196518880593738">
									<True/>
									<Node score="0.6271854823856635">
										<SimplePredicate field="double(HighChol)" operator="lessOrEqual" value="0.5"/>
										<Node score="-0.09217272494359047">
											<SimplePredicate field="double(HeartDiseaseorAttack)" operator="lessOrEqual" value="0.5"/>
											<Node score="-0.4405822810604985">
												<SimplePredicate field="double(BMI)" operator="lessOrEqual" value="25.5"/>
											</Node>
										</Node>
										<Node score="0.25939420668496743">
											<SimplePredicate field="double(Stroke)" operator="lessOrEqual" value="0.5"/>
										</Node>
									</Node>
									<Node score="0.3325505272273711">
										<SimplePredicate field="double(HvyAlcoholConsump)" operator="lessOrEqual" value="0.5"/>
										<Node score="0.07245066380611795">
											<SimplePredicate field="double(BMI)" operator="lessOrEqual" value="32.5"/>
										</Node>
									</Node>
									<Node score="-0.6095618498296973">
										<SimplePredicate field="double(Sex)" operator="lessOrEqual" value="0.5"/>
									</Node>
								</Node>
							</TreeModel>
						</Segment>
						<Segment id="30">
							<True/>
							<TreeModel functionName="regression" missingValueStrategy="nullPrediction" noTrueChildStrategy="returnLastPrediction">
								<MiningSchema>
									<MiningField name="double(GenHlth)"/>
									<MiningField name="double(Age)"/>
									<MiningField name="double(BMI)"/>
									<MiningField name="double(HighChol)"/>
									<MiningField name="double(Sex)"/>
									<MiningField name="double(CholCheck)"/>
								</MiningSchema>
								<Node score="0.25886096132541087">
									<True/>
									<Node score="0.2350754500420457">
										<SimplePredicate field="double(GenHlth)" operator="lessOrEqual" value="3.5"/>
										<Node score="0.20625022957627007">
											<SimplePredicate field="double(Age)" operator="lessOrEqual" value="9.5"/>
											<Node score="-0.24737925258938584">
												<SimplePredicate field="double(BMI)" operator="lessOrEqual" value="38.5"/>
											</Node>
										</Node>
										<Node score="-0.08346221901218569">
											<SimplePredicate field="double(Sex)" operator="lessOrEqual" value="0.5"/>
										</Node>
									</Node>
									<Node score="0.028131301295614444">
										<SimplePredicate field="double(BMI)" operator="lessOrEqual" value="21.5"/>
										<Node score="-0.3879440811937931">
											<SimplePredicate field="double(HighChol)" operator="lessOrEqual" value="0.5"/>
										</Node>
									</Node>
									<Node score="-0.43572141455180535">
										<SimplePredicate field="double(CholCheck)" operator="lessOrEqual" value="0.5"/>
									</Node>
								</Node>
							</TreeModel>
						</Segment>
						<Segment id="31">
							<True/>
							<TreeModel functionName="regression" missingValueStrategy="nullPrediction" noTrueChildStrategy="returnLastPrediction">
								<MiningSchema>
									<MiningField name="double(GenHlth)"/>
									<MiningField name="double(Age)"/>
									<MiningField name="double(BMI)"/>
									<MiningField name="double(DiffWalk)"/>
									<MiningField name="double(HeartDiseaseorAttack)"/>
									<MiningField name="double(Sex)"/>
									<MiningField name="double(CholCheck)"/>
								</MiningSchema>
								<Node score="0.09267724975313404">
									<True/>
									<Node score="0.6610833868511305">
										<SimplePredicate field="double(GenHlth)" operator="lessOrEqual" value="1.5"/>
										<Node score="-0.29818646876583466">
											<SimplePredicate field="double(DiffWalk)" operator="lessOrEqual" value="0.5"/>
											<Node score="-0.7187720685070587">
												<SimplePredicate field="double(Sex)" operator="lessOrEqual" value="0.5"/>
											</Node>
										</Node>
										<Node score="-0.1148122041865147">
											<SimplePredicate field="double(BMI)" operator="lessOrEqual" value="25.5"/>
										</Node>
									</Node>
									<Node score="-0.02263006059597909">
										<SimplePredicate field="double(CholCheck)" operator="lessOrEqual" value="0.5"/>
										<Node score="-0.8598761151090726">
											<SimplePredicate field="double(HeartDiseaseorAttack)" operator="lessOrEqual" value="0.5"/>
										</Node>
									</Node>
									<Node score="-0.3520288666612549">
										<SimplePredicate field="double(Age)" operator="lessOrEqual" value="4.5"/>
									</Node>
								</Node>
							</TreeModel>
						</Segment>
						<Segment id="32">
							<True/>
							<TreeModel functionName="regression" missingValueStrategy="nullPrediction" noTrueChildStrategy="returnLastPrediction">
								<MiningSchema>
									<MiningField name="double(HighBP)"/>
									<MiningField name="double(Age)"/>
									<MiningField name="double(BMI)"/>
									<MiningField name="double(HvyAlcoholConsump)"/>
									<MiningField name="double(HeartDiseaseorAttack)"/>
									<MiningField name="double(CholCheck)"/>
								</MiningSchema>
								<Node score="0.15317337209270365">
									<True/>
									<Node score="-0.7591464308397853">
										<SimplePredicate field="double(BMI)" operator="lessOrEqual" value="28.5"/>
										<Node score="0.040834760769561024">
											<SimplePredicate field="double(HvyAlcoholConsump)" operator="lessOrEqual" value="0.5"/>
											<Node score="-0.2430835958370671">
												<SimplePredicate field="double(HighBP)" operator="lessOrEqual" value="0.5"/>
											</Node>
										</Node>
										<Node score="-0.564116695164159">
											<SimplePredicate field="double(Age)" operator="lessOrEqual" value="8.5"/>
										</Node>
									</Node>
									<Node score="0.33645914494891993">
										<SimplePredicate field="double(CholCheck)" operator="lessOrEqual" value="0.5"/>
										<Node score="-0.7918154834859193">
											<SimplePredicate field="double(HeartDiseaseorAttack)" operator="lessOrEqual" value="0.5"/>
										</Node>
									</Node>
									<Node score="-0.3868038326659582">
										<SimplePredicate field="double(Age)" operator="lessOrEqual" value="3.5"/>
									</Node>
								</Node>
							</TreeModel>
						</Segment>
						<Segment id="33">
							<True/>
							<TreeModel functionName="regression" missingValueStrategy="nullPrediction" noTrueChildStrategy="returnLastPrediction">
								<MiningSchema>
									<MiningField name="double(Age)"/>
									<MiningField name="double(BMI)"/>
									<MiningField name="double(HeartDiseaseorAttack)"/>
									<MiningField name="double(Stroke)"/>
								</MiningSchema>
								<Node score="0.5190170149560847">
									<True/>
									<Node score="0.3312591741452316">
										<SimplePredicate field="double(HeartDiseaseorAttack)" operator="lessOrEqual" value="0.5"/>
										<Node score="0.02777340016601152">
											<SimplePredicate field="double(BMI)" operator="lessOrEqual" value="34.5"/>
											<Node score="-0.21211521249150667">
												<SimplePredicate field="double(Age)" operator="lessOrEqual" value="9.5"/>
											</Node>
										</Node>
										<Node score="0.06103261063665537">
											<SimplePredicate field="double(Age)" operator="lessOrEqual" value="8.5"/>
										</Node>
									</Node>
									<Node score="-0.3742009915650165">
										<SimplePredicate field="double(BMI)" operator="lessOrEqual" value="22.5"/>
										<Node score="0.10486770210511302">
											<SimplePredicate field="double(Age)" operator="lessOrEqual" value="12.5"/>
										</Node>
									</Node>
									<Node score="0.2665511777204969">
										<SimplePredicate field="double(Stroke)" operator="lessOrEqual" value="0.5"/>
									</Node>
								</Node>
							</TreeModel>
						</Segment>
						<Segment id="34">
							<True/>
							<TreeModel functionName="regression" missingValueStrategy="nullPrediction" noTrueChildStrategy="returnLastPrediction">
								<MiningSchema>
									<MiningField name="double(Age)"/>
									<MiningField name="double(BMI)"/>
									<MiningField name="double(HighChol)"/>
									<MiningField name="double(HvyAlcoholConsump)"/>
									<MiningField name="double(Sex)"/>
								</MiningSchema>
								<Node score="-0.15009342028047137">
									<True/>
									<Node score="0.25411603189797505">
										<SimplePredicate field="double(HighChol)" operator="lessOrEqual" value="0.5"/>
										<Node score="0.07278487081021434">
											<SimplePredicate field="double(Age)" operator="lessOrEqual" value="10.5"/>
											<Node score="-0.27159736114144256">
												<SimplePredicate field="double(BMI)" operator="lessOrEqual" value="34.5"/>
											</Node>
										</Node>
										<Node score="-0.06163439032079408">
											<SimplePredicate field="double(Sex)" operator="lessOrEqual" value="0.5"/>
										</Node>
									</Node>
									<Node score="0.3989235551074165">
										<SimplePredicate field="double(HvyAlcoholConsump)" operator="lessOrEqual" value="0.5"/>
										<Node score="0.08474884539990851">
											<SimplePredicate field="double(BMI)" operator="lessOrEqual" value="37.5"/>
										</Node>
									</Node>
									<Node score="-0.509784848397434">
										<SimplePredicate field="double(Sex)" operator="lessOrEqual" value="0.5"/>
									</Node>
								</Node>
							</TreeModel>
						</Segment>
						<Segment id="35">
							<True/>
							<TreeModel functionName="regression" missingValueStrategy="nullPrediction" noTrueChildStrategy="returnLastPrediction">
								<MiningSchema>
									<MiningField name="double(GenHlth)"/>
									<MiningField name="double(Age)"/>
									<MiningField name="double(BMI)"/>
									<MiningField name="double(HighChol)"/>
									<MiningField name="double(HvyAlcoholConsump)"/>
								</MiningSchema>
								<Node score="-0.20946443696370803">
									<True/>
									<Node score="-0.5250370495544613">
										<SimplePredicate field="double(GenHlth)" operator="lessOrEqual" value="3.5"/>
										<Node score="0.08797617009743212">
											<SimplePredicate field="double(Age)" operator="lessOrEqual" value="5.5"/>
											<Node score="-0.46366200492860193">
												<SimplePredicate field="double(BMI)" operator="lessOrEqual" value="38.5"/>
											</Node>
										</Node>
										<Node score="0.006951717731066541">
											<SimplePredicate field="double(HvyAlcoholConsump)" operator="lessOrEqual" value="0.5"/>
										</Node>
									</Node>
									<Node score="0.02685461650441301">
										<SimplePredicate field="double(BMI)" operator="lessOrEqual" value="21.5"/>
										<Node score="-0.31649258083629406">
											<SimplePredicate field="double(HighChol)" operator="lessOrEqual" value="0.5"/>
										</Node>
									</Node>
									<Node score="0.22311799657402465">
										<SimplePredicate field="double(HvyAlcoholConsump)" operator="lessOrEqual" value="0.5"/>
									</Node>
								</Node>
							</TreeModel>
						</Segment>
						<Segment id="36">
							<True/>
							<TreeModel functionName="regression" missingValueStrategy="nullPrediction" noTrueChildStrategy="returnLastPrediction">
								<MiningSchema>
									<MiningField name="double(GenHlth)"/>
									<MiningField name="double(BMI)"/>
									<MiningField name="double(DiffWalk)"/>
									<MiningField name="double(HeartDiseaseorAttack)"/>
									<MiningField name="double(Sex)"/>
									<MiningField name="double(CholCheck)"/>
									<MiningField name="double(Stroke)"/>
								</MiningSchema>
								<Node score="0.08711949189379034">
									<True/>
									<Node score="1.2692348518047032">
										<SimplePredicate field="double(GenHlth)" operator="lessOrEqual" value="1.5"/>
										<Node score="-0.25044321865511854">
											<SimplePredicate field="double(DiffWalk)" operator="lessOrEqual" value="0.5"/>
											<Node score="-0.656590576039809">
												<SimplePredicate field="double(Sex)" operator="lessOrEqual" value="0.5"/>
											</Node>
										</Node>
										<Node score="0.3147405045583238">
											<SimplePredicate field="double(Stroke)" operator="lessOrEqual" value="0.5"/>
										</Node>
									</Node>
									<Node score="-0.06981534928466743">
										<SimplePredicate field="double(CholCheck)" operator="lessOrEqual" value="0.5"/>
										<Node score="-0.7474101320787511">
											<SimplePredicate field="double(HeartDiseaseorAttack)" operator="lessOrEqual" value="0.5"/>
										</Node>
									</Node>
									<Node score="-0.20108252691158737">
										<SimplePredicate field="double(BMI)" operator="lessOrEqual" value="23.5"/>
									</Node>
								</Node>
							</TreeModel>
						</Segment>
						<Segment id="37">
							<True/>
							<TreeModel functionName="regression" missingValueStrategy="nullPrediction" noTrueChildStrategy="returnLastPrediction">
								<MiningSchema>
									<MiningField name="double(GenHlth)"/>
									<MiningField name="double(BMI)"/>
									<MiningField name="double(HeartDiseaseorAttack)"/>
									<MiningField name="double(Sex)"/>
									<MiningField name="double(CholCheck)"/>
									<MiningField name="double(Stroke)"/>
									<MiningField name="double(PhysHlth)"/>
								</MiningSchema>
								<Node score="0.32499488420610095">
									<True/>
									<Node score="0.05577328794989678">
										<SimplePredicate field="double(HeartDiseaseorAttack)" operator="lessOrEqual" value="0.5"/>
										<Node score="-0.03308484295881745">
											<SimplePredicate field="double(GenHlth)" operator="lessOrEqual" value="2.5"/>
											<Node score="-0.2868720781391426">
												<SimplePredicate field="double(Sex)" operator="lessOrEqual" value="0.5"/>
											</Node>
										</Node>
										<Node score="-0.6093406885749838">
											<SimplePredicate field="double(CholCheck)" operator="lessOrEqual" value="0.5"/>
										</Node>
									</Node>
									<Node score="0.38592562250742407">
										<SimplePredicate field="double(Stroke)" operator="lessOrEqual" value="0.5"/>
										<Node score="0.1323426532033009">
											<SimplePredicate field="double(BMI)" operator="lessOrEqual" value="32.5"/>
										</Node>
									</Node>
									<Node score="0.580717160374949">
										<SimplePredicate field="double(PhysHlth)" operator="lessOrEqual" value="2.5"/>
									</Node>
								</Node>
							</TreeModel>
						</Segment>
						<Segment id="38">
							<True/>
							<TreeModel functionName="regression" missingValueStrategy="nullPrediction" noTrueChildStrategy="returnLastPrediction">
								<MiningSchema>
									<MiningField name="double(BMI)"/>
									<MiningField name="double(HighChol)"/>
									<MiningField name="double(Veggies)"/>
									<MiningField name="double(Stroke)"/>
									<MiningField name="double(Smoker)"/>
								</MiningSchema>
								<Node score="0.3361489286670538">
									<True/>
									<Node score="0.1924931567267363">
										<SimplePredicate field="double(HighChol)" operator="lessOrEqual" value="0.5"/>
										<Node score="-0.05168655902734223">
											<SimplePredicate field="double(Stroke)" operator="lessOrEqual" value="0.5"/>
											<Node score="-0.31826176757896857">
												<SimplePredicate field="double(BMI)" operator="lessOrEqual" value="25.5"/>
											</Node>
										</Node>
										<Node score="0.6401523732485793">
											<SimplePredicate field="double(Smoker)" operator="lessOrEqual" value="0.5"/>
										</Node>
									</Node>
									<Node score="-0.023707108489905735">
										<SimplePredicate field="double(BMI)" operator="lessOrEqual" value="30.5"/>
										<Node score="0.1765660345624009">
											<SimplePredicate field="double(Veggies)" operator="lessOrEqual" value="0.5"/>
										</Node>
									</Node>
									<Node score="0.1323237335771075">
										<SimplePredicate field="double(BMI)" operator="lessOrEqual" value="37.5"/>
									</Node>
								</Node>
							</TreeModel>
						</Segment>
						<Segment id="39">
							<True/>
							<TreeModel functionName="regression" missingValueStrategy="nullPrediction" noTrueChildStrategy="returnLastPrediction">
								<MiningSchema>
									<MiningField name="double(GenHlth)"/>
									<MiningField name="double(Age)"/>
									<MiningField name="double(BMI)"/>
									<MiningField name="double(DiffWalk)"/>
									<MiningField name="double(CholCheck)"/>
									<MiningField name="double(Stroke)"/>
									<MiningField name="double(PhysHlth)"/>
								</MiningSchema>
								<Node score="0.43699337545343564">
									<True/>
									<Node score="0.018093547070857103">
										<SimplePredicate field="double(DiffWalk)" operator="lessOrEqual" value="0.5"/>
										<Node score="0.6589554087987388">
											<SimplePredicate field="double(GenHlth)" operator="lessOrEqual" value="1.5"/>
											<Node score="-0.41721565896849583">
												<SimplePredicate field="double(Stroke)" operator="lessOrEqual" value="0.5"/>
											</Node>
										</Node>
										<Node score="-0.33263941809483016">
											<SimplePredicate field="double(Age)" operator="lessOrEqual" value="4.5"/>
										</Node>
									</Node>
									<Node score="-0.037249608321408195">
										<SimplePredicate field="double(CholCheck)" operator="lessOrEqual" value="0.5"/>
										<Node score="-0.7309125414180461">
											<SimplePredicate field="double(PhysHlth)" operator="lessOrEqual" value="13.0"/>
										</Node>
									</Node>
									<Node score="0.13842232927085876">
										<SimplePredicate field="double(BMI)" operator="lessOrEqual" value="42.5"/>
									</Node>
								</Node>
							</TreeModel>
						</Segment>
						<Segment id="40">
							<True/>
							<TreeModel functionName="regression" missingValueStrategy="nullPrediction" noTrueChildStrategy="returnLastPrediction">
								<MiningSchema>
									<MiningField name="double(GenHlth)"/>
									<MiningField name="double(Age)"/>
									<MiningField name="double(BMI)"/>
									<MiningField name="double(HvyAlcoholConsump)"/>
									<MiningField name="double(Sex)"/>
									<MiningField name="double(CholCheck)"/>
								</MiningSchema>
								<Node score="-0.3590418016608437">
									<True/>
									<Node score="0.19671378090825228">
										<SimplePredicate field="double(BMI)" operator="lessOrEqual" value="23.5"/>
										<Node score="-0.07378350066292796">
											<SimplePredicate field="double(Sex)" operator="lessOrEqual" value="0.5"/>
											<Node score="-0.464392311892239">
												<SimplePredicate field="double(GenHlth)" operator="lessOrEqual" value="3.5"/>
											</Node>
										</Node>
										<Node score="-0.15329958048402095">
											<SimplePredicate field="double(Age)" operator="lessOrEqual" value="9.5"/>
										</Node>
									</Node>
									<Node score="-0.08898502975487244">
										<SimplePredicate field="double(Age)" operator="lessOrEqual" value="7.5"/>
										<Node score="-0.7614239228251312">
											<SimplePredicate field="double(CholCheck)" operator="lessOrEqual" value="0.5"/>
										</Node>
									</Node>
									<Node score="0.10808559881181085">
										<SimplePredicate field="double(HvyAlcoholConsump)" operator="lessOrEqual" value="0.5"/>
									</Node>
								</Node>
							</TreeModel>
						</Segment>
						<Segment id="41">
							<True/>
							<TreeModel functionName="regression" missingValueStrategy="nullPrediction" noTrueChildStrategy="returnLastPrediction">
								<MiningSchema>
									<MiningField name="double(GenHlth)"/>
									<MiningField name="double(BMI)"/>
									<MiningField name="double(HvyAlcoholConsump)"/>
									<MiningField name="double(HeartDiseaseorAttack)"/>
									<MiningField name="double(CholCheck)"/>
									<MiningField name="double(PhysHlth)"/>
								</MiningSchema>
								<Node score="0.23527047853806513">
									<True/>
									<Node score="0.21382946265385594">
										<SimplePredicate field="double(GenHlth)" operator="lessOrEqual" value="3.5"/>
										<Node score="-0.06339467432628637">
											<SimplePredicate field="double(HeartDiseaseorAttack)" operator="lessOrEqual" value="0.5"/>
											<Node score="-0.781991099708625">
												<SimplePredicate field="double(CholCheck)" operator="lessOrEqual" value="0.5"/>
											</Node>
										</Node>
										<Node score="-0.4729436855058594">
											<SimplePredicate field="double(BMI)" operator="lessOrEqual" value="20.5"/>
										</Node>
									</Node>
									<Node score="-0.3968032253526286">
										<SimplePredicate field="double(PhysHlth)" operator="lessOrEqual" value="1.5"/>
										<Node score="0.30345351638674234">
											<SimplePredicate field="double(HvyAlcoholConsump)" operator="lessOrEqual" value="0.5"/>
										</Node>
									</Node>
									<Node score="0.02447993102050508">
										<SimplePredicate field="double(GenHlth)" operator="lessOrEqual" value="4.5"/>
									</Node>
								</Node>
							</TreeModel>
						</Segment>
						<Segment id="42">
							<True/>
							<TreeModel functionName="regression" missingValueStrategy="nullPrediction" noTrueChildStrategy="returnLastPrediction">
								<MiningSchema>
									<MiningField name="double(Age)"/>
									<MiningField name="double(BMI)"/>
									<MiningField name="double(Sex)"/>
									<MiningField name="double(Stroke)"/>
								</MiningSchema>
								<Node score="0.31489634849727083">
									<True/>
									<Node score="0.19686137569837917">
										<SimplePredicate field="double(BMI)" operator="lessOrEqual" value="31.5"/>
										<Node score="0.3326523777863669">
											<SimplePredicate field="double(Age)" operator="lessOrEqual" value="10.5"/>
											<Node score="-0.14113413997581703">
												<SimplePredicate field="double(Stroke)" operator="lessOrEqual" value="0.5"/>
											</Node>
										</Node>
										<Node score="-0.04768228737444976">
											<SimplePredicate field="double(Sex)" operator="lessOrEqual" value="0.5"/>
										</Node>
									</Node>
									<Node score="0.21758586616642805">
										<SimplePredicate field="double(Age)" operator="lessOrEqual" value="8.5"/>
										<Node score="-0.034862855720850947">
											<SimplePredicate field="double(BMI)" operator="lessOrEqual" value="41.5"/>
										</Node>
									</Node>
									<Node score="0.11409380444983526">
										<SimplePredicate field="double(Sex)" operator="lessOrEqual" value="0.5"/>
									</Node>
								</Node>
							</TreeModel>
						</Segment>
						<Segment id="43">
							<True/>
							<TreeModel functionName="regression" missingValueStrategy="nullPrediction" noTrueChildStrategy="returnLastPrediction">
								<MiningSchema>
									<MiningField name="double(Age)"/>
									<MiningField name="double(BMI)"/>
									<MiningField name="double(HighChol)"/>
									<MiningField name="double(HvyAlcoholConsump)"/>
									<MiningField name="double(HeartDiseaseorAttack)"/>
									<MiningField name="double(Sex)"/>
								</MiningSchema>
								<Node score="-2.9021735947809013">
									<True/>
									<Node score="0.19764250031490863">
										<SimplePredicate field="double(HighChol)" operator="lessOrEqual" value="0.5"/>
										<Node score="0.26454440623770387">
											<SimplePredicate field="double(Age)" operator="lessOrEqual" value="10.5"/>
											<Node score="-0.17152302572884956">
												<SimplePredicate field="double(HeartDiseaseorAttack)" operator="lessOrEqual" value="0.5"/>
											</Node>
										</Node>
										<Node score="-0.04112571816617141">
											<SimplePredicate field="double(Sex)" operator="lessOrEqual" value="0.5"/>
										</Node>
									</Node>
									<Node score="0.2937948724078168">
										<SimplePredicate field="double(HvyAlcoholConsump)" operator="lessOrEqual" value="0.5"/>
										<Node score="0.05902842843755239">
											<SimplePredicate field="double(BMI)" operator="lessOrEqual" value="37.5"/>
										</Node>
									</Node>
									<Node score="-0.21276026280283966">
										<SimplePredicate field="double(BMI)" operator="lessOrEqual" value="53.0"/>
									</Node>
								</Node>
							</TreeModel>
						</Segment>
						<Segment id="44">
							<True/>
							<TreeModel functionName="regression" missingValueStrategy="nullPrediction" noTrueChildStrategy="returnLastPrediction">
								<MiningSchema>
									<MiningField name="double(GenHlth)"/>
									<MiningField name="double(Age)"/>
									<MiningField name="double(BMI)"/>
									<MiningField name="double(HvyAlcoholConsump)"/>
									<MiningField name="double(DiffWalk)"/>
									<MiningField name="double(Veggies)"/>
									<MiningField name="double(Stroke)"/>
								</MiningSchema>
								<Node score="0.6420866216207336">
									<True/>
									<Node score="1.1028334557682378">
										<SimplePredicate field="double(GenHlth)" operator="lessOrEqual" value="1.5"/>
										<Node score="-0.41791859102714324">
											<SimplePredicate field="double(DiffWalk)" operator="lessOrEqual" value="0.5"/>
											<Node score="0.010243461587914109">
												<SimplePredicate field="double(Veggies)" operator="lessOrEqual" value="0.5"/>
											</Node>
										</Node>
										<Node score="0.27164451388117355">
											<SimplePredicate field="double(Stroke)" operator="lessOrEqual" value="0.5"/>
										</Node>
									</Node>
									<Node score="0.058502136853101634">
										<SimplePredicate field="double(HvyAlcoholConsump)" operator="lessOrEqual" value="0.5"/>
										<Node score="-0.36905625477405585">
											<SimplePredicate field="double(Age)" operator="lessOrEqual" value="3.5"/>
										</Node>
									</Node>
									<Node score="-0.3422718520033449">
										<SimplePredicate field="double(BMI)" operator="lessOrEqual" value="43.5"/>
									</Node>
								</Node>
							</TreeModel>
						</Segment>
						<Segment id="45">
							<True/>
							<TreeModel functionName="regression" missingValueStrategy="nullPrediction" noTrueChildStrategy="returnLastPrediction">
								<MiningSchema>
									<MiningField name="double(Age)"/>
									<MiningField name="double(BMI)"/>
									<MiningField name="double(HvyAlcoholConsump)"/>
									<MiningField name="double(DiffWalk)"/>
									<MiningField name="double(Sex)"/>
								</MiningSchema>
								<Node score="-0.27279902865081046">
									<True/>
									<Node score="0.15449703575296686">
										<SimplePredicate field="double(BMI)" operator="lessOrEqual" value="23.5"/>
										<Node score="-0.03593155754926581">
											<SimplePredicate field="double(Sex)" operator="lessOrEqual" value="0.5"/>
											<Node score="-0.3961168471794793">
												<SimplePredicate field="double(DiffWalk)" operator="lessOrEqual" value="0.5"/>
											</Node>
										</Node>
										<Node score="-0.11335422113561883">
											<SimplePredicate field="double(Age)" operator="lessOrEqual" value="9.5"/>
										</Node>
									</Node>
									<Node score="-0.04248591577590354">
										<SimplePredicate field="double(Age)" operator="lessOrEqual" value="7.5"/>
										<Node score="-0.3524320014671871">
											<SimplePredicate field="double(Age)" operator="lessOrEqual" value="3.5"/>
										</Node>
									</Node>
									<Node score="0.08713001212556049">
										<SimplePredicate field="double(HvyAlcoholConsump)" operator="lessOrEqual" value="0.5"/>
									</Node>
								</Node>
							</TreeModel>
						</Segment>
						<Segment id="46">
							<True/>
							<TreeModel functionName="regression" missingValueStrategy="nullPrediction" noTrueChildStrategy="returnLastPrediction">
								<MiningSchema>
									<MiningField name="double(Age)"/>
									<MiningField name="double(BMI)"/>
									<MiningField name="double(Sex)"/>
									<MiningField name="double(CholCheck)"/>
								</MiningSchema>
								<Node score="0.08159031892953975">
									<True/>
									<Node score="-1.0684548883877278">
										<SimplePredicate field="double(CholCheck)" operator="lessOrEqual" value="0.5"/>
										<Node score="-0.6283544234399728">
											<SimplePredicate field="double(BMI)" operator="lessOrEqual" value="39.5"/>
											<Node score="-0.6414280264643791">
												<SimplePredicate field="double(Age)" operator="lessOrEqual" value="8.5"/>
											</Node>
										</Node>
										<Node score="0.47167564564992787">
											<SimplePredicate field="double(BMI)" operator="lessOrEqual" value="47.5"/>
										</Node>
									</Node>
									<Node score="0.029278336356070845">
										<SimplePredicate field="double(BMI)" operator="lessOrEqual" value="27.5"/>
										<Node score="-0.15241001211649796">
											<SimplePredicate field="double(Sex)" operator="lessOrEqual" value="0.5"/>
										</Node>
									</Node>
									<Node score="-0.262658039453131">
										<SimplePredicate field="double(Age)" operator="lessOrEqual" value="3.5"/>
									</Node>
								</Node>
							</TreeModel>
						</Segment>
						<Segment id="47">
							<True/>
							<TreeModel functionName="regression" missingValueStrategy="nullPrediction" noTrueChildStrategy="returnLastPrediction">
								<MiningSchema>
									<MiningField name="double(GenHlth)"/>
									<MiningField name="double(Age)"/>
									<MiningField name="double(HvyAlcoholConsump)"/>
									<MiningField name="double(DiffWalk)"/>
									<MiningField name="double(CholCheck)"/>
									<MiningField name="double(PhysHlth)"/>
								</MiningSchema>
								<Node score="0.1766650009875775">
									<True/>
									<Node score="-0.3385614274502616">
										<SimplePredicate field="double(GenHlth)" operator="lessOrEqual" value="3.5"/>
										<Node score="-0.058316191779923275">
											<SimplePredicate field="double(DiffWalk)" operator="lessOrEqual" value="0.5"/>
											<Node score="-0.7015219136735377">
												<SimplePredicate field="double(CholCheck)" operator="lessOrEqual" value="0.5"/>
											</Node>
										</Node>
										<Node score="0.14440514151088357">
											<SimplePredicate field="double(HvyAlcoholConsump)" operator="lessOrEqual" value="0.5"/>
										</Node>
									</Node>
									<Node score="0.2087569125667669">
										<SimplePredicate field="double(PhysHlth)" operator="lessOrEqual" value="10.5"/>
										<Node score="-0.7522330628944535">
											<SimplePredicate field="double(Age)" operator="lessOrEqual" value="1.5"/>
										</Node>
									</Node>
									<Node score="-0.06593921826307943">
										<SimplePredicate field="double(GenHlth)" operator="lessOrEqual" value="4.5"/>
									</Node>
								</Node>
							</TreeModel>
						</Segment>
						<Segment id="48">
							<True/>
							<TreeModel functionName="regression" missingValueStrategy="nullPrediction" noTrueChildStrategy="returnLastPrediction">
								<MiningSchema>
									<MiningField name="double(GenHlth)"/>
									<MiningField name="double(Age)"/>
									<MiningField name="double(BMI)"/>
									<MiningField name="double(HvyAlcoholConsump)"/>
									<MiningField name="double(Stroke)"/>
									<MiningField name="double(PhysHlth)"/>
								</MiningSchema>
								<Node score="0.6057326908168115">
									<True/>
									<Node score="1.5126877491405153">
										<SimplePredicate field="double(GenHlth)" operator="lessOrEqual" value="1.5"/>
										<Node score="0.09507923606819935">
											<SimplePredicate field="double(PhysHlth)" operator="lessOrEqual" value="9.5"/>
											<Node score="-0.3805881171302994">
												<SimplePredicate field="double(Age)" operator="lessOrEqual" value="11.5"/>
											</Node>
										</Node>
										<Node score="0.46336447688953647">
											<SimplePredicate field="double(Stroke)" operator="lessOrEqual" value="0.5"/>
										</Node>
									</Node>
									<Node score="0.04646674391193888">
										<SimplePredicate field="double(HvyAlcoholConsump)" operator="lessOrEqual" value="0.5"/>
										<Node score="-0.3084858983984907">
											<SimplePredicate field="double(BMI)" operator="lessOrEqual" value="20.5"/>
										</Node>
									</Node>
									<Node score="-0.284405709268505">
										<SimplePredicate field="double(BMI)" operator="lessOrEqual" value="43.5"/>
									</Node>
								</Node>
							</TreeModel>
						</Segment>
						<Segment id="49">
							<True/>
							<TreeModel functionName="regression" missingValueStrategy="nullPrediction" noTrueChildStrategy="returnLastPrediction">
								<MiningSchema>
									<MiningField name="double(GenHlth)"/>
									<MiningField name="double(BMI)"/>
									<MiningField name="double(HighChol)"/>
									<MiningField name="double(Veggies)"/>
									<MiningField name="double(Stroke)"/>
									<MiningField name="double(Smoker)"/>
								</MiningSchema>
								<Node score="-8.209468352518222">
									<True/>
									<Node score="0.120070195714245">
										<SimplePredicate field="double(HighChol)" operator="lessOrEqual" value="0.5"/>
										<Node score="0.10477841709764436">
											<SimplePredicate field="double(Stroke)" operator="lessOrEqual" value="0.5"/>
											<Node score="-0.12188705537428296">
												<SimplePredicate field="double(BMI)" operator="lessOrEqual" value="36.5"/>
											</Node>
										</Node>
										<Node score="0.5451155327261444">
											<SimplePredicate field="double(Smoker)" operator="lessOrEqual" value="0.5"/>
										</Node>
									</Node>
									<Node score="0.011270430126069346">
										<SimplePredicate field="double(GenHlth)" operator="lessOrEqual" value="4.5"/>
										<Node score="0.1424582423547885">
											<SimplePredicate field="double(Veggies)" operator="lessOrEqual" value="0.5"/>
										</Node>
									</Node>
									<Node score="0.2708522350260249">
										<SimplePredicate field="double(BMI)" operator="lessOrEqual" value="92.0"/>
									</Node>
								</Node>
							</TreeModel>
						</Segment>
						<Segment id="50">
							<True/>
							<TreeModel functionName="regression" missingValueStrategy="nullPrediction" noTrueChildStrategy="returnLastPrediction">
								<MiningSchema>
									<MiningField name="double(Age)"/>
									<MiningField name="double(BMI)"/>
									<MiningField name="double(HvyAlcoholConsump)"/>
									<MiningField name="double(Sex)"/>
									<MiningField name="double(Stroke)"/>
									<MiningField name="double(Fruits)"/>
								</MiningSchema>
								<Node score="0.09070113801865592">
									<True/>
									<Node score="-0.7964035397232803">
										<SimplePredicate field="double(Age)" operator="lessOrEqual" value="9.5"/>
										<Node score="0.2721191906058746">
											<SimplePredicate field="double(BMI)" operator="lessOrEqual" value="37.5"/>
											<Node score="-0.10946164897131412">
												<SimplePredicate field="double(Stroke)" operator="lessOrEqual" value="0.5"/>
											</Node>
										</Node>
										<Node score="0.1638734504965521">
											<SimplePredicate field="double(BMI)" operator="lessOrEqual" value="72.5"/>
										</Node>
									</Node>
									<Node score="-0.6435894013287352">
										<SimplePredicate field="double(Sex)" operator="lessOrEqual" value="0.5"/>
										<Node score="-0.001272700820543463">
											<SimplePredicate field="double(HvyAlcoholConsump)" operator="lessOrEqual" value="0.5"/>
										</Node>
									</Node>
									<Node score="0.2869025708632841">
										<SimplePredicate field="double(Fruits)" operator="lessOrEqual" value="0.5"/>
									</Node>
								</Node>
							</TreeModel>
						</Segment>
						<Segment id="51">
							<True/>
							<TreeModel functionName="regression" missingValueStrategy="nullPrediction" noTrueChildStrategy="returnLastPrediction">
								<MiningSchema>
									<MiningField name="double(Age)"/>
									<MiningField name="double(BMI)"/>
									<MiningField name="double(DiffWalk)"/>
									<MiningField name="double(Sex)"/>
									<MiningField name="double(CholCheck)"/>
								</MiningSchema>
								<Node score="0.05886001185204759">
									<True/>
									<Node score="0.12502017770081916">
										<SimplePredicate field="double(BMI)" operator="lessOrEqual" value="25.5"/>
										<Node score="0.01883637843923527">
											<SimplePredicate field="double(Sex)" operator="lessOrEqual" value="0.5"/>
											<Node score="-0.2625204531339519">
												<SimplePredicate field="double(DiffWalk)" operator="lessOrEqual" value="0.5"/>
											</Node>
										</Node>
										<Node score="-0.09736230850064485">
											<SimplePredicate field="double(Age)" operator="lessOrEqual" value="9.5"/>
										</Node>
									</Node>
									<Node score="-0.44465109037056844">
										<SimplePredicate field="double(Age)" operator="lessOrEqual" value="4.5"/>
										<Node score="0.05368937417394551">
											<SimplePredicate field="double(Sex)" operator="lessOrEqual" value="0.5"/>
										</Node>
									</Node>
									<Node score="-0.41981352802149835">
										<SimplePredicate field="double(CholCheck)" operator="lessOrEqual" value="0.5"/>
									</Node>
								</Node>
							</TreeModel>
						</Segment>
						<Segment id="52">
							<True/>
							<TreeModel functionName="regression" missingValueStrategy="nullPrediction" noTrueChildStrategy="returnLastPrediction">
								<MiningSchema>
									<MiningField name="double(GenHlth)"/>
									<MiningField name="double(Age)"/>
									<MiningField name="double(BMI)"/>
									<MiningField name="double(Veggies)"/>
									<MiningField name="double(PhysHlth)"/>
								</MiningSchema>
								<Node score="0.13963556608913058">
									<True/>
									<Node score="0.056421048891023305">
										<SimplePredicate field="double(GenHlth)" operator="lessOrEqual" value="3.5"/>
										<Node score="0.10731018881578418">
											<SimplePredicate field="double(Veggies)" operator="lessOrEqual" value="0.5"/>
											<Node score="-0.543174725606361">
												<SimplePredicate field="double(Age)" operator="lessOrEqual" value="2.5"/>
											</Node>
										</Node>
										<Node score="-0.10544692537951827">
											<SimplePredicate field="double(BMI)" operator="lessOrEqual" value="32.5"/>
										</Node>
									</Node>
									<Node score="-2.06843825879018">
										<SimplePredicate field="double(PhysHlth)" operator="lessOrEqual" value="10.5"/>
										<Node score="0.18141044234271203">
											<SimplePredicate field="double(BMI)" operator="lessOrEqual" value="74.0"/>
										</Node>
									</Node>
									<Node score="-0.06733174886767165">
										<SimplePredicate field="double(GenHlth)" operator="lessOrEqual" value="4.5"/>
									</Node>
								</Node>
							</TreeModel>
						</Segment>
						<Segment id="53">
							<True/>
							<TreeModel functionName="regression" missingValueStrategy="nullPrediction" noTrueChildStrategy="returnLastPrediction">
								<MiningSchema>
									<MiningField name="double(GenHlth)"/>
									<MiningField name="double(Age)"/>
									<MiningField name="double(BMI)"/>
									<MiningField name="double(HeartDiseaseorAttack)"/>
									<MiningField name="double(MentHlth)"/>
								</MiningSchema>
								<Node score="0.010840769560977827">
									<True/>
									<Node score="-0.09022540827739627">
										<SimplePredicate field="double(HeartDiseaseorAttack)" operator="lessOrEqual" value="0.5"/>
										<Node score="0.17085143125298458">
											<SimplePredicate field="double(GenHlth)" operator="lessOrEqual" value="1.5"/>
											<Node score="-0.34787118780184073">
												<SimplePredicate field="double(Age)" operator="lessOrEqual" value="11.5"/>
											</Node>
										</Node>
										<Node score="0.04168824348430385">
											<SimplePredicate field="double(MentHlth)" operator="lessOrEqual" value="0.5"/>
										</Node>
									</Node>
									<Node score="0.17977905533347602">
										<SimplePredicate field="double(Age)" operator="lessOrEqual" value="11.5"/>
										<Node score="0.5712828929389998">
											<SimplePredicate field="double(GenHlth)" operator="lessOrEqual" value="1.5"/>
										</Node>
									</Node>
									<Node score="1.848171358989749">
										<SimplePredicate field="double(BMI)" operator="lessOrEqual" value="16.5"/>
									</Node>
								</Node>
							</TreeModel>
						</Segment>
						<Segment id="54">
							<True/>
							<TreeModel functionName="regression" missingValueStrategy="nullPrediction" noTrueChildStrategy="returnLastPrediction">
								<MiningSchema>
									<MiningField name="double(Age)"/>
									<MiningField name="double(BMI)"/>
									<MiningField name="double(CholCheck)"/>
									<MiningField name="double(Stroke)"/>
									<MiningField name="double(PhysHlth)"/>
									<MiningField name="double(Smoker)"/>
								</MiningSchema>
								<Node score="0.11521466025295532">
									<True/>
									<Node score="0.8020779178819956">
										<SimplePredicate field="double(CholCheck)" operator="lessOrEqual" value="0.5"/>
										<Node score="-0.5207888018355672">
											<SimplePredicate field="double(BMI)" operator="lessOrEqual" value="39.5"/>
											<Node score="-0.5358956499358256">
												<SimplePredicate field="double(Age)" operator="lessOrEqual" value="8.5"/>
											</Node>
										</Node>
										<Node score="-0.6028386674418972">
											<SimplePredicate field="double(Smoker)" operator="lessOrEqual" value="0.5"/>
										</Node>
									</Node>
									<Node score="0.14981713417607675">
										<SimplePredicate field="double(Stroke)" operator="lessOrEqual" value="0.5"/>
										<Node score="-0.02499903703879541">
											<SimplePredicate field="double(BMI)" operator="lessOrEqual" value="37.5"/>
										</Node>
									</Node>
									<Node score="0.357893895625833">
										<SimplePredicate field="double(PhysHlth)" operator="lessOrEqual" value="2.5"/>
									</Node>
								</Node>
							</TreeModel>
						</Segment>
						<Segment id="55">
							<True/>
							<TreeModel functionName="regression" missingValueStrategy="nullPrediction" noTrueChildStrategy="returnLastPrediction">
								<MiningSchema>
									<MiningField name="double(GenHlth)"/>
									<MiningField name="double(Age)"/>
									<MiningField name="double(HighChol)"/>
									<MiningField name="double(Veggies)"/>
									<MiningField name="double(PhysHlth)"/>
									<MiningField name="double(MentHlth)"/>
								</MiningSchema>
								<Node score="0.2276536558843283">
									<True/>
									<Node score="-0.0641748634407468">
										<SimplePredicate field="double(HighChol)" operator="lessOrEqual" value="0.5"/>
										<Node score="0.028980086390193997">
											<SimplePredicate field="double(MentHlth)" operator="lessOrEqual" value="0.5"/>
											<Node score="-0.332701341854364">
												<SimplePredicate field="double(GenHlth)" operator="lessOrEqual" value="1.5"/>
											</Node>
										</Node>
										<Node score="-0.3293010012066552">
											<SimplePredicate field="double(PhysHlth)" operator="lessOrEqual" value="1.5"/>
										</Node>
									</Node>
									<Node score="0.012134396248558334">
										<SimplePredicate field="double(GenHlth)" operator="lessOrEqual" value="4.5"/>
										<Node score="0.11445313938198028">
											<SimplePredicate field="double(Veggies)" operator="lessOrEqual" value="0.5"/>
										</Node>
									</Node>
									<Node score="-2.056561097353622">
										<SimplePredicate field="double(Age)" operator="lessOrEqual" value="1.5"/>
									</Node>
								</Node>
							</TreeModel>
						</Segment>
						<Segment id="56">
							<True/>
							<TreeModel functionName="regression" missingValueStrategy="nullPrediction" noTrueChildStrategy="returnLastPrediction">
								<MiningSchema>
									<MiningField name="double(GenHlth)"/>
									<MiningField name="double(Age)"/>
									<MiningField name="double(BMI)"/>
									<MiningField name="double(HighChol)"/>
									<MiningField name="double(HvyAlcoholConsump)"/>
									<MiningField name="double(Sex)"/>
								</MiningSchema>
								<Node score="-2.450252273788109">
									<True/>
									<Node score="0.09293936707581374">
										<SimplePredicate field="double(HvyAlcoholConsump)" operator="lessOrEqual" value="0.5"/>
										<Node score="-0.009112087188945052">
											<SimplePredicate field="double(Age)" operator="lessOrEqual" value="5.5"/>
											<Node score="-0.4091870837206285">
												<SimplePredicate field="double(GenHlth)" operator="lessOrEqual" value="2.5"/>
											</Node>
										</Node>
										<Node score="-0.019095578033433813">
											<SimplePredicate field="double(Sex)" operator="lessOrEqual" value="0.5"/>
										</Node>
									</Node>
									<Node score="-0.5285613406823327">
										<SimplePredicate field="double(HighChol)" operator="lessOrEqual" value="0.5"/>
										<Node score="-0.17180093419072218">
											<SimplePredicate field="double(Age)" operator="lessOrEqual" value="5.5"/>
										</Node>
									</Node>
									<Node score="-0.10246664200591686">
										<SimplePredicate field="double(BMI)" operator="lessOrEqual" value="53.0"/>
									</Node>
								</Node>
							</TreeModel>
						</Segment>
						<Segment id="57">
							<True/>
							<TreeModel functionName="regression" missingValueStrategy="nullPrediction" noTrueChildStrategy="returnLastPrediction">
								<MiningSchema>
									<MiningField name="double(Age)"/>
									<MiningField name="double(BMI)"/>
									<MiningField name="double(Sex)"/>
									<MiningField name="double(PhysActivity)"/>
								</MiningSchema>
								<Node score="0.11324780918436994">
									<True/>
									<Node score="-0.03188604404903333">
										<SimplePredicate field="double(BMI)" operator="lessOrEqual" value="23.5"/>
										<Node score="-0.17027833372481244">
											<SimplePredicate field="double(Sex)" operator="lessOrEqual" value="0.5"/>
											<Node score="-0.40342490153115235">
												<SimplePredicate field="double(BMI)" operator="lessOrEqual" value="20.5"/>
											</Node>
										</Node>
										<Node score="0.20421048567651306">
											<SimplePredicate field="double(PhysActivity)" operator="lessOrEqual" value="0.5"/>
										</Node>
									</Node>
									<Node score="0.17070327912186553">
										<SimplePredicate field="double(Age)" operator="lessOrEqual" value="8.5"/>
										<Node score="-0.06063769546661886">
											<SimplePredicate field="double(BMI)" operator="lessOrEqual" value="42.5"/>
										</Node>
									</Node>
									<Node score="0.012618948885546984">
										<SimplePredicate field="double(Sex)" operator="lessOrEqual" value="0.5"/>
									</Node>
								</Node>
							</TreeModel>
						</Segment>
						<Segment id="58">
							<True/>
							<TreeModel functionName="regression" missingValueStrategy="nullPrediction" noTrueChildStrategy="returnLastPrediction">
								<MiningSchema>
									<MiningField name="double(BMI)"/>
									<MiningField name="double(HvyAlcoholConsump)"/>
									<MiningField name="double(CholCheck)"/>
									<MiningField name="double(Veggies)"/>
									<MiningField name="double(PhysHlth)"/>
